9.693378210067749023e-02,
9.073979407548904419e-02,
-1.111238747835159302e-01,
9.023223072290420532e-02,
1.282941251993179321e-01,
3.741282969713211060e-02,
3.560955822467803955e-02,
-6.808223575353622437e-02,
4.606814682483673096e-02,
-6.366756558418273926e-02,
1.067824512720108032e-01,
1.679200232028961182e-01,
2.972481772303581238e-02,
-7.624616473913192749e-02,
9.700840711593627930e-02,
-2.820101194083690643e-02,
-3.950582444667816162e-02,
-1.864311546087265015e-01,
7.961460947990417480e-02,
3.806583955883979797e-02,
-4.815319553017616272e-02,
-1.010666042566299438e-01,
1.313731539994478226e-02,
4.506624117493629456e-02,
6.816894561052322388e-02,
1.134508326649665833e-01,
2.624024823307991028e-02,
5.994531884789466858e-02,
-1.152483671903610229e-01,
4.883969202637672424e-02,
-3.962344303727149963e-02,
1.184294298291206360e-01,
-4.661937709897756577e-03,
5.285232514142990112e-02,
-1.971592307090759277e-01,
-6.021830486133694649e-04,
-1.108238697052001953e-01,
2.062401920557022095e-02,
-5.682276934385299683e-02,
-1.203028857707977295e-01,
1.050180718302726746e-01,
2.012734860181808472e-02,
3.233610093593597412e-02,
-3.043138980865478516e-02,
-6.021096929907798767e-02,
-5.334297940135002136e-02,
-3.540627658367156982e-02,
5.898751690983772278e-02,
1.293352097272872925e-01,
1.341374665498733521e-01,
-6.426481902599334717e-02,
-1.016777232289314270e-01,
3.400122001767158508e-02,
1.936250366270542145e-03,
3.668307512998580933e-02,
6.110598891973495483e-02,
5.019324645400047302e-02,
6.512892246246337891e-02,
-4.874206706881523132e-02,
8.379089087247848511e-02,
1.893465071916580200e-01,
6.366438418626785278e-02,
-3.360601514577865601e-02,
2.198630124330520630e-01,
-5.822065100073814392e-02,
-5.075054615736007690e-02,
6.205926463007926941e-02,
-7.746060192584991455e-02,
-6.796969473361968994e-02,
1.071692109107971191e-01,
4.829457402229309082e-02,
1.075874199159443378e-03,
1.130118593573570251e-02,
1.477741301059722900e-01,
-4.951858520507812500e-02,
1.083269640803337097e-01,
8.923146873712539673e-02,
8.145503699779510498e-02,
1.002232078462839127e-02,
6.287078559398651123e-02,
-3.166969120502471924e-02,
-2.233012206852436066e-02,
1.450121053494513035e-03,
-1.154402922838926315e-02,
-1.583175361156463623e-01,
-1.879718713462352753e-02,
-8.616635203361511230e-02,
-3.621972352266311646e-02,
-1.673304475843906403e-02,
-2.007647417485713959e-02,
1.119422633200883865e-02,
-3.762055933475494385e-02,
8.036011457443237305e-02,
2.593480981886386871e-02,
-9.935179352760314941e-02,
2.048677653074264526e-01,
3.559545613825321198e-03,
-1.091308817267417908e-01,
-2.028975263237953186e-02,
-4.661208391189575195e-02,
-1.208639070391654968e-01,
-2.180905640125274658e-02,
-5.343606323003768921e-02,
-6.874103099107742310e-02,
-1.203874498605728149e-01,
-3.960188850760459900e-02,
-2.797383069992065430e-02,
9.107510745525360107e-02,
1.291391905397176743e-02,
-5.655685439705848694e-03,
4.261353984475135803e-02,
9.331326186656951904e-02,
-7.569956779479980469e-02,
-2.457492239773273468e-02,
-1.024968400597572327e-01,
9.548289328813552856e-02,
1.020161136984825134e-01,
-4.108543321490287781e-02,
2.204882167279720306e-02,
6.315308809280395508e-02,
-1.595244109630584717e-01,
-1.007032692432403564e-01,
-1.096885353326797485e-01,
-9.762422740459442139e-02,
2.495259046554565430e-01,
-4.771561548113822937e-02,
-4.363176226615905762e-02,
-1.638516597449779510e-02,
5.768908187747001648e-02,
7.910219952464103699e-03,
8.040492236614227295e-02,
7.373841851949691772e-02,
6.785286217927932739e-02,
-5.362065508961677551e-02,
2.880851179361343384e-02,
7.820232212543487549e-02,
1.734953373670578003e-02,
-3.766877204179763794e-02,
2.593596577644348145e-01,
-1.111990287899971008e-01,
7.134721428155899048e-02,
-7.987865060567855835e-02,
2.465237118303775787e-02,
-4.922837018966674805e-02,
-1.149396002292633057e-01,
8.290541917085647583e-02,
6.969892978668212891e-02,
7.518474757671356201e-02,
-1.177236661314964294e-01,
-6.561424583196640015e-02,
-1.074654608964920044e-01,
-1.060799416154623032e-02,
2.961787953972816467e-02,
2.446528822183609009e-01,
7.039345800876617432e-02,
1.348842978477478027e-01,
-4.454457387328147888e-02,
-6.116501241922378540e-02,
-1.058859378099441528e-01,
-2.749131806194782257e-02,
6.551345344632863998e-03,
-5.895758047699928284e-02,
-1.162056066095829010e-02,
3.290404751896858215e-02,
1.360828131437301636e-01,
2.015932798385620117e-01,
3.563690558075904846e-02,
3.635725378990173340e-02,
8.250928670167922974e-02,
4.637745022773742676e-02,
9.530862420797348022e-02,
4.396954923868179321e-02,
-2.134794183075428009e-02,
6.293114274740219116e-02,
7.909990102052688599e-02,
-8.747079409658908844e-03,
1.173134371638298035e-01,
7.025869190692901611e-02,
1.876240596175193787e-02,
-7.623812649399042130e-03,
4.572986159473657608e-03,
-1.005980148911476135e-01,
-1.006239876151084900e-01,
3.172663599252700806e-02,
-2.226532250642776489e-02,
9.021700918674468994e-02,
3.859992325305938721e-02,
-1.044946536421775818e-01,
-6.290156394243240356e-02,
7.122173160314559937e-02,
-1.241308227181434631e-01,
-6.828213483095169067e-02,
2.320786938071250916e-02,
7.244415581226348877e-02,
-3.965963795781135559e-02,
7.935769110918045044e-02,
-9.614798240363597870e-03,
-7.982446253299713135e-02,
7.137538492679595947e-02,
-7.962076365947723389e-02,
9.446169249713420868e-03,
5.666400119662284851e-02,
-9.385377168655395508e-02,
-4.668510705232620239e-02,
5.656588822603225708e-02,
8.775559812784194946e-02,
1.881667971611022949e-02,
-4.928063601255416870e-02,
-9.653925895690917969e-03,
1.602826565504074097e-01,
5.835654214024543762e-02,
7.130435109138488770e-02,
6.285982578992843628e-02,
1.783445179462432861e-01,
-1.406433284282684326e-01,
7.900352030992507935e-02,
-2.138165570795536041e-02,
-4.694902524352073669e-02,
-8.346031606197357178e-02,
-9.393237531185150146e-02,
-9.132628887891769409e-02,
4.936680570244789124e-02,
-1.016028225421905518e-01,
5.210566520690917969e-02,
-1.781332492828369141e-02,
6.418359279632568359e-02,
7.471018284559249878e-02,
-8.405947685241699219e-02,
-7.665476202964782715e-02,
-4.773943219333887100e-03,
-1.433036476373672485e-02,
1.869934350252151489e-01,
-8.943819254636764526e-02,
-7.667008787393569946e-02,
3.506331890821456909e-02,
-3.516552597284317017e-02,
7.048373669385910034e-02,
4.241071641445159912e-02,
1.973046213388442993e-01,
-4.630047455430030823e-02,
-2.485522441565990448e-02,
-1.021322533488273621e-01,
7.663004845380783081e-02,
-8.890048600733280182e-03,
7.112484425306320190e-02,
-2.482080087065696716e-02,
-1.247609965503215790e-02,
-1.855752430856227875e-02,
-8.135087788105010986e-02,
2.832048200070858002e-02,
2.388993278145790100e-02,
-6.073550507426261902e-02,
-1.620021015405654907e-01,
6.985619664192199707e-02,
-8.081088960170745850e-02,
2.823321148753166199e-02,
