2.410053042694926262e-03,
3.167233988642692566e-02,
-4.508135467767715454e-02,
-1.225709989666938782e-01,
3.921474888920783997e-02,
2.397169359028339386e-03,
-3.718116879463195801e-02,
3.221508860588073730e-01,
1.732630133628845215e-01,
1.775123775005340576e-01,
-7.718756049871444702e-02,
6.790278479456901550e-03,
-6.717220693826675415e-02,
-1.162758022546768188e-01,
-5.928370356559753418e-02,
-7.743173092603683472e-02,
-5.239532887935638428e-02,
2.448318758979439735e-03,
-1.584909260272979736e-01,
1.094049960374832153e-01,
5.615092068910598755e-02,
2.896743714809417725e-01,
1.758714020252227783e-01,
2.350251562893390656e-02,
1.368875503540039062e-01,
1.831024736166000366e-01,
-4.605524241924285889e-02,
-9.206712990999221802e-02,
2.114532738924026489e-01,
-6.491549313068389893e-02,
-2.560873702168464661e-02,
7.857063412666320801e-02,
-1.290075387805700302e-02,
-4.525272175669670105e-03,
-1.159779205918312073e-01,
2.418020218610763550e-01,
1.972945034503936768e-01,
4.355873167514801025e-02,
-7.570387423038482666e-02,
-1.313198208808898926e-01,
2.239768356084823608e-01,
-1.510163694620132446e-01,
1.148172616958618164e-01,
1.709637194871902466e-01,
1.104639936238527298e-02,
-1.518402695655822754e-01,
-1.216953992843627930e-01,
-4.245186224579811096e-02,
1.585287153720855713e-01,
5.355543643236160278e-02,
-2.324497550725936890e-01,
3.156935051083564758e-02,
9.643433243036270142e-02,
-1.636109352111816406e-01,
-1.300772000104188919e-02,
-2.759341523051261902e-02,
3.863289952278137207e-02,
-2.687260694801807404e-02,
-4.052192717790603638e-02,
2.017364092171192169e-02,
1.690937578678131104e-02,
4.121668264269828796e-02,
-2.404492348432540894e-02,
-5.446199327707290649e-02,
1.242806464433670044e-01,
-1.008472964167594910e-01,
-4.521315172314643860e-02,
-3.494109725579619408e-03,
2.962482571601867676e-01,
2.800275571644306183e-02,
1.741157099604606628e-02,
-5.722737684845924377e-02,
-1.102786436676979065e-01,
3.578873723745346069e-02,
-7.990772277116775513e-02,
-1.589109450578689575e-01,
8.355336263775825500e-03,
-3.798468783497810364e-02,
1.217428147792816162e-01,
8.215418457984924316e-02,
-1.258646100759506226e-01,
5.942022800445556641e-02,
-1.946216523647308350e-01,
-6.611469388008117676e-02,
-1.343290060758590698e-01,
-8.538411930203437805e-03,
9.622845053672790527e-02,
8.823236078023910522e-02,
-2.931401692330837250e-02,
8.129095076583325863e-04,
1.446975618600845337e-01,
5.257318541407585144e-02,
3.657636232674121857e-03,
2.210770547389984131e-02,
1.842871867120265961e-02,
1.507820338010787964e-01,
2.063436992466449738e-02,
2.152936607599258423e-01,
-9.386438131332397461e-02,
4.714031890034675598e-02,
1.106032654643058777e-01,
-7.539923489093780518e-02,
8.333262056112289429e-02,
1.034400686621665955e-01,
-5.659231916069984436e-02,
-2.000132799148559570e-01,
1.566944569349288940e-01,
-1.366242021322250366e-01,
1.613206416368484497e-01,
-5.130409821867942810e-02,
-8.607359230518341064e-02,
-6.147737428545951843e-02,
-2.164327204227447510e-01,
-7.823326438665390015e-02,
5.947115644812583923e-02,
2.141161859035491943e-01,
-1.679691299796104431e-02,
8.351807296276092529e-02,
-5.779916793107986450e-02,
7.595217972993850708e-02,
8.732876740396022797e-03,
-4.674058407545089722e-02,
1.153475940227508545e-01,
1.330101490020751953e-01,
-1.050093472003936768e-01,
-7.660763710737228394e-02,
7.284250855445861816e-02,
2.400378696620464325e-02,
-2.460923790931701660e-01,
8.095896989107131958e-02,
-9.595230966806411743e-02,
1.880024671554565430e-01,
-8.785547316074371338e-02,
1.338027715682983398e-01,
-3.094609081745147705e-02,
9.234096109867095947e-02,
-1.180996373295783997e-01,
-5.431408807635307312e-02,
2.886189520359039307e-01,
-2.254344522953033447e-02,
-3.685572743415832520e-02,
-5.959086865186691284e-02,
6.903182715177536011e-02,
1.937750726938247681e-01,
3.876559063792228699e-02,
1.017058454453945160e-02,
-2.010582536458969116e-01,
1.661660075187683105e-01,
-4.804443195462226868e-02,
-5.854496359825134277e-02,
-1.439876109361648560e-01,
-1.087772846221923828e-01,
-5.932805314660072327e-02,
2.546443641185760498e-01,
-5.813349410891532898e-02,
-6.623809784650802612e-02,
1.247976794838905334e-01,
1.838966012001037598e-01,
-7.643941044807434082e-02,
6.193922832608222961e-02,
-5.263626575469970703e-02,
-3.011185443028807640e-03,
-2.109971828758716583e-03,
1.234879940748214722e-01,
-4.124112799763679504e-02,
-8.020912855863571167e-02,
-7.346042990684509277e-02,
-3.904405608773231506e-02,
-1.512493379414081573e-02,
1.909752786159515381e-01,
-9.688731282949447632e-02,
-1.491067558526992798e-01,
3.617311641573905945e-02,
2.389755658805370331e-02,
3.503461927175521851e-02,
5.740439984947443008e-03,
2.974699623882770538e-02,
4.573643580079078674e-02,
-2.863571420311927795e-02,
-1.427139490842819214e-01,
3.223128616809844971e-02,
-1.444088071584701538e-01,
-1.895623281598091125e-02,
-1.046347767114639282e-01,
-6.238736212253570557e-02,
-4.001503810286521912e-02,
4.635771363973617554e-02,
1.065927464514970779e-02,
6.521060317754745483e-02,
6.201492249965667725e-02,
-2.251325920224189758e-02,
2.422110885381698608e-01,
-7.575857453048229218e-04,
9.818635135889053345e-02,
5.798580870032310486e-02,
-9.786522388458251953e-02,
-1.045511364936828613e-01,
8.089151233434677124e-02,
-1.660633236169815063e-01,
1.496188938617706299e-01,
-1.353264600038528442e-01,
4.116982966661453247e-02,
2.166310548782348633e-01,
-8.345875889062881470e-02,
-3.476835042238235474e-02,
-2.333640120923519135e-02,
-2.227620780467987061e-02,
-1.100313961505889893e-01,
2.111326903104782104e-02,
-1.503658443689346313e-01,
2.630500309169292450e-02,
-5.333612114191055298e-02,
7.291331142187118530e-02,
-5.238874256610870361e-02,
8.789061754941940308e-02,
1.540831103920936584e-02,
-1.367994099855422974e-01,
-9.586218744516372681e-02,
2.298896200954914093e-02,
-5.079822614789009094e-02,
-7.682634145021438599e-02,
-7.414536178112030029e-02,
3.095252253115177155e-02,
-1.021528169512748718e-01,
-3.071248717606067657e-02,
2.000506520271301270e-01,
-1.913976855576038361e-02,
-7.586059719324111938e-02,
-3.563977777957916260e-02,
3.065840303897857666e-01,
6.285394728183746338e-02,
-7.556018978357315063e-02,
-1.644730567932128906e-01,
-1.027117595076560974e-01,
-9.607511572539806366e-03,
2.010882366448640823e-03,
1.390653997659683228e-01,
-9.450064599514007568e-02,
1.022075042128562927e-01,
1.820000559091567993e-01,
-7.995082996785640717e-03,
-4.209721460938453674e-02,
5.584844946861267090e-02,
6.569202989339828491e-02,
2.222606353461742401e-02,
-2.426680736243724823e-02,
7.805359363555908203e-02,
-2.499447911977767944e-01,
-1.389497071504592896e-01,
-1.591542214155197144e-01,
1.024747714400291443e-01,
-9.703914821147918701e-02,
6.407050788402557373e-02,
-9.205022454261779785e-02,
3.552539274096488953e-03,
-1.433498561382293701e-01,
