-9.846729226410388947e-03,
-6.654984503984451294e-02,
-1.935293711721897125e-02,
-4.819923546165227890e-03,
-1.092206910252571106e-01,
5.433322116732597351e-02,
-1.594740897417068481e-01,
-3.189873695373535156e-02,
-1.662520468235015869e-01,
-3.039028681814670563e-02,
3.830474019050598145e-01,
7.458112202584743500e-03,
-5.695749074220657349e-02,
-1.244421675801277161e-01,
-1.485338211059570312e-01,
-8.334752172231674194e-02,
2.219323255121707916e-02,
-1.758993864059448242e-01,
-5.941740423440933228e-02,
-2.301298268139362335e-02,
-1.796953082084655762e-01,
4.458452016115188599e-02,
-1.985156834125518799e-01,
-1.893952339887619019e-01,
-1.442390233278274536e-01,
-1.186577454209327698e-01,
-2.821410447359085083e-02,
-2.611807547509670258e-02,
-1.095463782548904419e-01,
-2.855533361434936523e-02,
-1.002705749124288559e-02,
-5.318102240562438965e-02,
-2.073383890092372894e-02,
1.211878582835197449e-01,
2.828414365649223328e-02,
-1.884318143129348755e-02,
-6.111856922507286072e-02,
2.223187983036041260e-01,
-1.315759271383285522e-01,
2.002987312152981758e-03,
-7.806164026260375977e-02,
-1.239091083407402039e-01,
-1.078800112009048462e-01,
-1.220397353172302246e-01,
-1.549997478723526001e-01,
7.975091040134429932e-02,
-1.442745774984359741e-01,
5.461717396974563599e-02,
-4.769285023212432861e-02,
7.638199604116380215e-04,
1.228599995374679565e-02,
-5.437489226460456848e-02,
-1.750092953443527222e-01,
-9.255291521549224854e-02,
9.958560764789581299e-02,
5.632533133029937744e-02,
-1.344583779573440552e-01,
-3.909500688314437866e-02,
-1.345628313720226288e-02,
4.248988255858421326e-02,
-1.065709963440895081e-01,
-1.042542830109596252e-01,
2.385307252407073975e-01,
5.524932965636253357e-02,
-5.616651847958564758e-02,
-2.080505639314651489e-01,
-1.568379551172256470e-01,
-1.078865528106689453e-01,
-2.358585149049758911e-01,
-2.032934576272964478e-01,
-1.217478290200233459e-01,
-1.126822382211685181e-01,
-4.535154625773429871e-02,
-1.158371940255165100e-01,
-1.528145819902420044e-01,
-9.235912561416625977e-02,
2.191146910190582275e-01,
1.400483399629592896e-01,
-1.583883315324783325e-01,
-1.294686943292617798e-01,
-8.451187610626220703e-02,
-5.621456075459718704e-03,
-1.733757853507995605e-01,
-1.289678663015365601e-01,
-1.117488183081150055e-02,
-3.563044369220733643e-01,
1.912959814071655273e-01,
2.280128449201583862e-01,
-1.560772061347961426e-01,
1.145112141966819763e-01,
3.632789850234985352e-01,
4.740664362907409668e-02,
-1.237819343805313110e-01,
-6.551000475883483887e-02,
-4.197185859084129333e-02,
2.730368077754974365e-01,
-1.194385141134262085e-01,
-8.280492573976516724e-02,
8.623700588941574097e-02,
7.438527792692184448e-02,
-1.398270428180694580e-01,
1.888891682028770447e-02,
1.130674034357070923e-02,
-1.237250566482543945e-01,
-5.515041947364807129e-02,
-1.378628611564636230e-02,
3.619238734245300293e-02,
-1.028190739452838898e-02,
5.116653442382812500e-02,
-1.409012228250503540e-01,
-1.610691547393798828e-01,
2.116533368825912476e-02,
-3.286003266111947596e-05,
4.623584076762199402e-02,
4.271572083234786987e-02,
-1.002808809280395508e-01,
4.679290205240249634e-02,
-1.271424591541290283e-01,
-1.881043314933776855e-01,
-9.348993003368377686e-02,
-3.542748838663101196e-02,
-9.670800715684890747e-02,
-1.234794780611991882e-01,
-1.281721517443656921e-02,
-1.594587117433547974e-01,
-5.568579211831092834e-02,
-1.696491986513137817e-01,
-7.900896482169628143e-03,
-1.504063755273818970e-01,
4.500639438629150391e-02,
9.071188420057296753e-02,
4.064137581735849380e-03,
-1.448024511337280273e-01,
3.807432949542999268e-02,
9.126115590333938599e-02,
1.552534056827425957e-03,
-1.516873538494110107e-01,
7.325114309787750244e-02,
-1.316947489976882935e-01,
-2.060065567493438721e-01,
-8.209135383367538452e-02,
9.963692724704742432e-02,
-9.577962011098861694e-02,
3.996160253882408142e-02,
-2.391736954450607300e-01,
-1.733152121305465698e-01,
-1.532083600759506226e-01,
-1.431410014629364014e-01,
-1.116024553775787354e-01,
-1.874384880065917969e-01,
-2.386360764503479004e-01,
1.330716628581285477e-02,
-1.240007802844047546e-01,
-5.273721367120742798e-02,
8.030217140913009644e-02,
1.700940658338367939e-03,
-9.342388808727264404e-02,
-3.282838687300682068e-02,
-3.300390765070915222e-02,
2.311519533395767212e-02,
7.125046849250793457e-02,
-1.369300037622451782e-01,
-1.184368804097175598e-01,
-4.494981467723846436e-02,
-1.094329804182052612e-01,
2.226403951644897461e-01,
7.703088223934173584e-02,
-2.859091460704803467e-01,
4.090208932757377625e-02,
-3.481041267514228821e-02,
-3.350358456373214722e-02,
-1.377199403941631317e-02,
-1.438105702400207520e-01,
-1.747670471668243408e-01,
5.919307470321655273e-02,
-1.387494951486587524e-01,
1.288300752639770508e-01,
9.902181476354598999e-02,
1.167123168706893921e-01,
-4.260691348463296890e-03,
-5.055571440607309341e-03,
-5.825172737240791321e-02,
1.747804731130599976e-01,
1.237061619758605957e-01,
7.825122773647308350e-02,
-1.286757737398147583e-01,
1.815924048423767090e-01,
2.181168347597122192e-01,
-1.169562563300132751e-01,
1.456436812877655029e-01,
1.518901586532592773e-01,
-1.698962897062301636e-01,
-8.707381784915924072e-02,
-6.760596763342618942e-03,
1.526164356619119644e-02,
2.709138095378875732e-01,
9.107695519924163818e-02,
-1.150186732411384583e-01,
1.313441544771194458e-01,
3.891685511916875839e-03,
-2.175880968570709229e-02,
-1.697102487087249756e-01,
-7.850233465433120728e-02,
1.127143725752830505e-01,
-1.710679531097412109e-01,
3.214005008339881897e-02,
1.096494942903518677e-01,
2.959994785487651825e-02,
-8.678510785102844238e-02,
-1.007321700453758240e-01,
-1.575632840394973755e-01,
1.316712498664855957e-01,
1.001277379691600800e-02,
-4.847887903451919556e-02,
-7.264316827058792114e-02,
6.719476729631423950e-02,
-1.343199890106916428e-02,
-7.514910399913787842e-02,
1.080632060766220093e-01,
1.750428415834903717e-02,
1.785378158092498779e-02,
-1.289742588996887207e-01,
1.288034617900848389e-01,
-9.726592898368835449e-02,
5.512579157948493958e-02,
-1.674540936946868896e-01,
7.807410322129726410e-03,
-8.654355257749557495e-02,
1.763023436069488525e-01,
-1.008015945553779602e-01,
-3.685832023620605469e-02,
-1.600468456745147705e-01,
3.024148643016815186e-01,
5.337585136294364929e-02,
6.951972842216491699e-02,
-8.929102122783660889e-02,
-1.751611195504665375e-02,
-3.979363143444061279e-01,
1.939385943114757538e-02,
1.731814444065093994e-01,
2.608618140220642090e-01,
-4.717453941702842712e-02,
6.762017309665679932e-02,
-2.057554572820663452e-02,
-1.215283498167991638e-01,
-1.384548544883728027e-01,
-1.614815555512905121e-02,
5.184502899646759033e-02,
2.437659353017807007e-01,
-5.603084340691566467e-02,
-2.345648556947708130e-01,
-2.122289091348648071e-01,
-2.014430239796638489e-03,
-1.712241023778915405e-01,
-3.940439969301223755e-02,
-1.065674200654029846e-01,
