-1.094967871904373169e-01,
1.327563636004924774e-02,
4.914400354027748108e-02,
5.446550622582435608e-02,
1.648089438676834106e-01,
7.348961383104324341e-02,
-6.273305416107177734e-02,
1.703471094369888306e-01,
-4.004739969968795776e-02,
8.605688810348510742e-02,
3.577237948775291443e-02,
2.324151247739791870e-01,
1.331617832183837891e-01,
1.849828660488128662e-02,
-7.876590825617313385e-03,
2.607743144035339355e-01,
-9.567296504974365234e-02,
-1.297980397939682007e-01,
6.698936969041824341e-02,
3.700023889541625977e-02,
5.045084655284881592e-02,
3.115688636898994446e-02,
-9.767069667577743530e-02,
7.789644598960876465e-02,
3.720282763242721558e-02,
4.447128251194953918e-02,
-1.067405939102172852e-01,
7.819283753633499146e-03,
2.363119460642337799e-02,
-8.832334727048873901e-02,
5.464556068181991577e-02,
-1.156181469559669495e-02,
-5.925479158759117126e-02,
1.847013644874095917e-02,
6.911201030015945435e-02,
3.863220661878585815e-02,
-1.864759624004364014e-02,
-9.829023480415344238e-02,
9.715887904167175293e-02,
1.549902409315109253e-01,
6.634748727083206177e-02,
2.676313184201717377e-02,
-9.310215711593627930e-02,
2.969457022845745087e-02,
4.157588258385658264e-02,
-8.432840555906295776e-02,
-2.043149471282958984e-01,
-3.860623762011528015e-02,
1.921877861022949219e-01,
-5.377386510372161865e-02,
-6.397680193185806274e-02,
1.080405339598655701e-02,
7.400263845920562744e-02,
-5.108085274696350098e-02,
-9.242921322584152222e-02,
3.515853360295295715e-02,
-7.538697123527526855e-02,
7.522384077310562134e-02,
1.341478526592254639e-02,
3.244445845484733582e-02,
-1.311888992786407471e-01,
-2.733202576637268066e-01,
7.627385109663009644e-02,
-6.992053985595703125e-02,
1.998509913682937622e-01,
2.349930256605148315e-02,
-4.501290619373321533e-02,
-4.491900652647018433e-02,
-8.533311635255813599e-02,
7.496463507413864136e-02,
-3.479149565100669861e-02,
-6.164428777992725372e-03,
1.096781995147466660e-02,
-2.881348505616188049e-02,
5.574884638190269470e-02,
-1.236861497163772583e-01,
1.507149338722229004e-01,
1.943573728203773499e-02,
3.532065078616142273e-02,
-1.554589569568634033e-01,
-1.052160784602165222e-01,
2.378737181425094604e-01,
-5.126855149865150452e-02,
3.596622869372367859e-02,
7.756657898426055908e-02,
-9.577236324548721313e-02,
-2.572322264313697815e-02,
1.262127161026000977e-01,
6.156892701983451843e-02,
2.812888100743293762e-02,
3.320133313536643982e-02,
1.076310127973556519e-01,
1.556671410799026489e-01,
-9.446676820516586304e-02,
-1.329813525080680847e-02,
-8.474757894873619080e-03,
-6.882906705141067505e-02,
-9.859571000561118126e-04,
-4.794169589877128601e-02,
-2.353632636368274689e-02,
-1.193436384201049805e-01,
2.160720080137252808e-01,
-9.949061274528503418e-02,
1.462657451629638672e-01,
-1.302334247156977654e-03,
-2.398926578462123871e-02,
5.480341240763664246e-02,
-8.727943152189254761e-02,
-1.421445459127426147e-01,
7.284153997898101807e-02,
2.284615673124790192e-02,
-1.125752646476030350e-02,
1.816113293170928955e-01,
8.408818393945693970e-02,
1.453495211899280548e-02,
2.350332960486412048e-02,
1.693782955408096313e-01,
-3.413150086998939514e-02,
-9.228068590164184570e-02,
-5.742658674716949463e-02,
-1.074852421879768372e-01,
3.556985780596733093e-02,
5.078141018748283386e-02,
-9.488832205533981323e-02,
1.425085067749023438e-01,
-9.098024666309356689e-02,
-1.735126599669456482e-02,
-4.401674494147300720e-02,
4.838870465755462646e-02,
-8.965606242418289185e-02,
-8.787940256297588348e-03,
-2.822448685765266418e-02,
1.876740902662277222e-01,
1.767056882381439209e-01,
8.829248137772083282e-03,
-1.121006011962890625e-01,
8.234477043151855469e-02,
-1.295575946569442749e-01,
-1.007354184985160828e-01,
-8.664192259311676025e-02,
3.572762757539749146e-02,
-3.406827896833419800e-02,
-1.312828063964843750e-01,
-9.235455840826034546e-02,
-1.803616434335708618e-01,
7.387246191501617432e-02,
1.529536116868257523e-02,
-6.505434960126876831e-02,
-2.926017716526985168e-02,
-8.818303793668746948e-02,
-4.103276878595352173e-02,
5.288153141736984253e-02,
7.877536863088607788e-02,
-1.264632642269134521e-01,
3.536835685372352600e-02,
3.756450116634368896e-02,
-4.119640588760375977e-02,
-7.778488099575042725e-02,
-2.394210174679756165e-02,
2.967302687466144562e-02,
1.828571110963821411e-01,
1.090134829282760620e-01,
-1.039881408214569092e-01,
-6.147147342562675476e-02,
-2.137153297662734985e-01,
3.756535798311233521e-02,
7.407318055629730225e-02,
1.331229358911514282e-01,
2.507843375205993652e-01,
-5.327863991260528564e-02,
-6.157964468002319336e-02,
8.210523054003715515e-03,
-1.190826892852783203e-01,
1.777095794677734375e-01,
2.206769138574600220e-01,
-7.311867177486419678e-02,
-2.773402929306030273e-01,
2.787409126758575439e-01,
2.884440310299396515e-02,
-9.132405370473861694e-02,
-1.391838937997817993e-01,
-2.982028201222419739e-02,
-1.125544030219316483e-02,
1.140117086470127106e-02,
-1.000327989459037781e-02,
-7.932349294424057007e-02,
3.831557929515838623e-02,
4.720889031887054443e-02,
8.148504793643951416e-02,
3.598151355981826782e-02,
-8.303426206111907959e-02,
-2.828512340784072876e-02,
1.149736270308494568e-01,
-2.485036104917526245e-02,
-5.900500691495835781e-04,
-1.268123835325241089e-01,
-7.273174822330474854e-02,
-1.009420305490493774e-01,
-6.532620638608932495e-02,
-1.433823816478252411e-02,
9.007291495800018311e-02,
-9.561596810817718506e-02,
4.454116523265838623e-02,
-2.820074185729026794e-02,
3.875471279025077820e-02,
1.338117718696594238e-01,
-4.045441374182701111e-02,
-3.078589588403701782e-02,
-1.592450588941574097e-02,
1.787101775407791138e-01,
-1.017706096172332764e-01,
-1.439803391695022583e-01,
-1.754566729068756104e-01,
-3.844285383820533752e-02,
-7.613185048103332520e-02,
-3.483448550105094910e-02,
2.076694369316101074e-02,
1.261348873376846313e-01,
-5.979076027870178223e-02,
-2.975388616323471069e-02,
-4.242106154561042786e-02,
-6.941655278205871582e-02,
-5.599378049373626709e-02,
-1.425888948142528534e-02,
-1.419044882059097290e-01,
-1.105431839823722839e-01,
-7.608762383460998535e-02,
1.154139637947082520e-02,
3.199528530240058899e-02,
-4.673882946372032166e-02,
3.744602203369140625e-02,
2.002190053462982178e-02,
2.225236594676971436e-02,
2.980434894561767578e-02,
7.180193811655044556e-02,
-6.120064482092857361e-02,
-1.415882408618927002e-01,
-1.349902451038360596e-01,
-7.075575739145278931e-02,
-7.998184114694595337e-02,
1.754215359687805176e-02,
-7.777963578701019287e-02,
-1.235556975007057190e-01,
2.001926861703395844e-02,
2.045676670968532562e-02,
-5.741848424077033997e-02,
4.646506905555725098e-02,
2.526864036917686462e-02,
-6.656209472566843033e-03,
-3.461562842130661011e-02,
1.263294648379087448e-02,
-5.187110230326652527e-02,
1.074528992176055908e-01,
4.740697797387838364e-03,
-6.398280709981918335e-02,
-6.903420388698577881e-02,
