-1.130258813500404358e-01,
-5.212785676121711731e-02,
-5.311527475714683533e-02,
-5.629423260688781738e-02,
4.379606992006301880e-02,
-7.981476932764053345e-02,
-4.894072934985160828e-02,
-1.117833927273750305e-01,
-7.336679100990295410e-02,
-3.318843990564346313e-02,
-7.269181311130523682e-02,
3.732563927769660950e-02,
2.380641549825668335e-01,
1.168360784649848938e-01,
-4.579329118132591248e-02,
8.659924566745758057e-02,
-9.369513019919395447e-03,
1.028319122269749641e-03,
-9.653687477111816406e-03,
-2.337799072265625000e-01,
1.076622083783149719e-01,
1.690426282584667206e-02,
3.816768154501914978e-02,
1.715806871652603149e-01,
8.753179572522640228e-03,
7.232253998517990112e-02,
-2.132540196180343628e-02,
-6.243562698364257812e-02,
4.976178705692291260e-02,
8.768382668495178223e-02,
1.673857420682907104e-01,
6.215445697307586670e-02,
2.315121144056320190e-01,
-2.808606624603271484e-02,
2.270900085568428040e-02,
-6.102631613612174988e-02,
-1.027354225516319275e-01,
8.390998095273971558e-02,
-2.879914594814181328e-03,
-6.003851816058158875e-02,
8.915230631828308105e-02,
1.038652732968330383e-01,
-2.638592943549156189e-02,
9.940816462039947510e-02,
8.367810398340225220e-02,
-9.131687134504318237e-02,
-5.913329124450683594e-02,
3.039079532027244568e-02,
-7.718208432197570801e-02,
-3.341402858495712280e-02,
1.350601203739643097e-03,
-7.894676923751831055e-02,
-7.166708260774612427e-02,
-1.183717027306556702e-01,
-5.215822905302047729e-02,
-1.513250172138214111e-02,
-3.623908758163452148e-02,
-1.213317364454269409e-02,
8.266142569482326508e-03,
4.358154907822608948e-02,
-9.578818827867507935e-02,
4.942787438631057739e-02,
4.142580553889274597e-02,
-2.687202300876379013e-03,
1.698205173015594482e-01,
-8.962748572230339050e-03,
-2.703948318958282471e-02,
-1.517054811120033264e-02,
1.583371907472610474e-01,
-1.202585827559232712e-02,
-5.938703939318656921e-02,
-9.567676484584808350e-02,
4.406677186489105225e-02,
2.074465155601501465e-03,
-2.347685163840651512e-03,
-3.754002973437309265e-02,
1.666238605976104736e-01,
-4.831096157431602478e-02,
5.062226206064224243e-02,
6.685746461153030396e-02,
2.062153816223144531e-01,
4.368303716182708740e-02,
3.423859179019927979e-02,
-2.421296387910842896e-02,
-3.455517813563346863e-02,
-3.296831250190734863e-02,
6.494925171136856079e-02,
2.724827453494071960e-02,
1.526154018938541412e-02,
-4.725739709101617336e-04,
4.343806579709053040e-02,
-2.267780480906367302e-03,
-2.296237275004386902e-02,
8.118130266666412354e-02,
-7.471802830696105957e-02,
1.352236513048410416e-02,
6.772548705339431763e-02,
-3.196625411510467529e-02,
1.147593110799789429e-01,
9.073513746261596680e-02,
-9.301717509515583515e-04,
1.148688569664955139e-01,
-2.276539430022239685e-02,
-1.845220923423767090e-01,
-2.375760674476623535e-02,
9.988049976527690887e-03,
2.816571593284606934e-01,
7.677430659532546997e-02,
-1.815281994640827179e-02,
1.006752252578735352e-01,
8.252955228090286255e-02,
-7.777101360261440277e-03,
2.594529092311859131e-02,
-9.332802146673202515e-02,
3.236053511500358582e-02,
1.324291229248046875e-01,
5.388513952493667603e-02,
-5.619337409734725952e-02,
-2.860849350690841675e-02,
7.247071713209152222e-02,
-1.113468483090400696e-01,
2.888629026710987091e-02,
-2.047771364450454712e-01,
-8.042364567518234253e-02,
-1.920760609209537506e-02,
1.040058210492134094e-02,
3.846857696771621704e-02,
-7.427962124347686768e-02,
-6.053608283400535583e-02,
-6.371249258518218994e-02,
-4.001211002469062805e-02,
-7.235299050807952881e-02,
8.756013214588165283e-02,
6.606736034154891968e-02,
5.233705416321754456e-02,
-8.257437497377395630e-02,
2.845453470945358276e-02,
5.672941356897354126e-02,
-1.009207069873809814e-01,
9.738247841596603394e-02,
-8.631663769483566284e-02,
3.494790941476821899e-02,
-7.629371434450149536e-02,
7.741842418909072876e-02,
-4.209417104721069336e-02,
1.350684165954589844e-01,
1.824747473001480103e-01,
6.789865344762802124e-02,
1.014000270515680313e-02,
-7.590833306312561035e-02,
-1.490662246942520142e-01,
1.026433706283569336e-02,
1.039922162890434265e-01,
5.041010677814483643e-02,
1.107082590460777283e-01,
7.937826216220855713e-02,
2.500900626182556152e-02,
-2.198182791471481323e-01,
2.279533073306083679e-03,
-3.715078532695770264e-02,
-1.831847876310348511e-01,
-7.274508476257324219e-02,
-6.344013661146163940e-02,
6.296532601118087769e-02,
-6.675122678279876709e-02,
1.685492992401123047e-01,
-3.529747426509857178e-01,
-1.246367245912551880e-01,
-4.702516272664070129e-02,
-6.221692077815532684e-03,
-1.130417510867118835e-01,
8.688674867153167725e-02,
-1.011454015970230103e-01,
6.046830862760543823e-02,
-7.713413983583450317e-02,
-8.822908997535705566e-02,
6.674815714359283447e-02,
6.316307000815868378e-03,
8.246546983718872070e-02,
8.238911628723144531e-02,
2.023919671773910522e-02,
1.381910406053066254e-02,
2.494760602712631226e-02,
-1.039047613739967346e-01,
-7.083563506603240967e-02,
-3.575540706515312195e-02,
-1.942653506994247437e-01,
-8.725481480360031128e-02,
-2.426523901522159576e-02,
-1.115952208638191223e-01,
-3.669959679245948792e-02,
-5.851645767688751221e-02,
-5.087272822856903076e-02,
9.127847105264663696e-02,
3.288075327873229980e-02,
2.674024552106857300e-02,
1.742175966501235962e-02,
-6.321145594120025635e-02,
3.170176967978477478e-02,
-8.379866927862167358e-02,
-1.861353777348995209e-02,
9.714672714471817017e-02,
2.442908100783824921e-02,
3.372631035745143890e-03,
-1.102538779377937317e-02,
-8.733998984098434448e-02,
1.310241371393203735e-01,
-8.715002238750457764e-02,
-8.066429942846298218e-02,
8.912698179483413696e-02,
1.927153021097183228e-02,
-1.711840741336345673e-02,
-5.306917428970336914e-02,
8.154334872961044312e-02,
-1.087633520364761353e-01,
-5.783060938119888306e-02,
3.511403501033782959e-02,
-2.982953190803527832e-02,
-7.235348224639892578e-02,
1.123892962932586670e-01,
-3.901743143796920776e-02,
-4.937303811311721802e-02,
4.165514558553695679e-02,
-3.110919520258903503e-02,
-2.184877172112464905e-02,
-6.962693762034177780e-03,
1.111888438463211060e-01,
7.681521028280258179e-02,
1.029532309621572495e-02,
-1.123403664678335190e-02,
9.562972933053970337e-02,
3.472873568534851074e-02,
-3.276330232620239258e-02,
1.994674652814865112e-02,
-7.605517655611038208e-02,
5.497073382139205933e-02,
-3.014493361115455627e-02,
-2.894801460206508636e-02,
8.554819226264953613e-02,
-5.793428514152765274e-03,
-4.001908749341964722e-02,
-8.498276583850383759e-04,
1.655688583850860596e-01,
-2.881945297122001648e-02,
-7.344398647546768188e-02,
-6.249030679464340210e-02,
-1.723506115376949310e-02,
-2.703722193837165833e-02,
2.455102652311325073e-01,
-1.066372469067573547e-01,
-4.701384902000427246e-02,
-9.482330083847045898e-02,
7.488172501325607300e-02,
2.141944020986557007e-01,
1.254566311836242676e-01,
-1.952994018793106079e-01,
