6.993445754051208496e-02,
3.596716746687889099e-02,
-4.894286394119262695e-02,
-1.171811297535896301e-01,
-7.505091279745101929e-02,
1.581505388021469116e-01,
-1.582104265689849854e-01,
1.426122784614562988e-01,
5.532937124371528625e-02,
-1.177800595760345459e-01,
4.642925783991813660e-02,
8.343853056430816650e-03,
-1.692254096269607544e-02,
6.637883931398391724e-02,
-9.068147046491503716e-04,
1.186664476990699768e-01,
2.020643949508666992e-01,
-4.561429098248481750e-02,
7.724171038717031479e-03,
8.321955800056457520e-02,
9.554377198219299316e-02,
2.774037122726440430e-01,
-3.241898864507675171e-02,
3.100337684154510498e-01,
8.232871443033218384e-02,
9.326183795928955078e-02,
8.919444680213928223e-02,
-2.349818870425224304e-02,
2.090108767151832581e-02,
-5.896693468093872070e-02,
-3.564156591892242432e-02,
5.216905102133750916e-02,
-8.109587430953979492e-02,
-6.293985247611999512e-02,
-9.904411435127258301e-02,
-5.009621381759643555e-03,
2.925955876708030701e-02,
3.022322058677673340e-02,
-1.197378337383270264e-01,
4.211886320263147354e-03,
-8.509948104619979858e-02,
-1.508131921291351318e-01,
6.183727830648422241e-02,
1.505211293697357178e-01,
1.891284137964248657e-01,
-1.227689790539443493e-03,
-1.188302319496870041e-02,
1.321566477417945862e-02,
-1.487121284008026123e-01,
2.198673598468303680e-02,
-5.578256398439407349e-02,
-2.084291428327560425e-01,
-1.079429313540458679e-01,
-7.760439068078994751e-02,
-1.353265643119812012e-01,
6.585708260536193848e-02,
-2.469240128993988037e-02,
-2.359563857316970825e-01,
-1.421293467283248901e-01,
-1.595724672079086304e-01,
4.460192099213600159e-02,
1.347156167030334473e-01,
4.253977537155151367e-02,
-5.230478569865226746e-02,
1.670672595500946045e-01,
3.622907772660255432e-02,
-2.015158161520957947e-02,
1.567046158015727997e-02,
-8.658765256404876709e-02,
-7.333398610353469849e-02,
-1.204166002571582794e-02,
-8.781500905752182007e-02,
2.117187976837158203e-01,
1.522798743098974228e-02,
-2.159247174859046936e-03,
5.234641139395534992e-04,
-1.281551718711853027e-01,
5.583127588033676147e-02,
-5.376288201659917831e-03,
-6.157689169049263000e-02,
3.852799534797668457e-02,
-4.616694152355194092e-02,
2.247076034545898438e-01,
-1.648110300302505493e-01,
2.225053161382675171e-01,
5.033466219902038574e-02,
-1.211092919111251831e-01,
-1.643224954605102539e-01,
-7.596056093461811543e-04,
3.152992129325866699e-01,
2.242858856916427612e-01,
6.976824253797531128e-02,
5.721620842814445496e-02,
1.435628235340118408e-01,
-4.462376609444618225e-02,
-4.077667742967605591e-02,
1.024276018142700195e-01,
1.002065837383270264e-02,
4.330949485301971436e-02,
2.188206166028976440e-01,
-8.387657999992370605e-02,
-2.204863429069519043e-01,
1.664965301752090454e-01,
1.762155443429946899e-01,
-4.391100630164146423e-02,
-5.528503656387329102e-02,
-1.874140948057174683e-01,
-1.434060782194137573e-01,
-5.182299390435218811e-02,
-1.822134479880332947e-02,
-2.177560478448867798e-01,
2.155389636754989624e-02,
-2.145473212003707886e-01,
-4.178862273693084717e-02,
5.507147312164306641e-02,
-2.163629792630672455e-02,
-1.043501496315002441e-01,
1.759257167577743530e-01,
1.556581705808639526e-01,
-1.316336095333099365e-01,
-1.572340726852416992e-01,
-5.780238658189773560e-02,
-8.008792251348495483e-02,
-3.373020887374877930e-02,
8.737465739250183105e-02,
-1.323879659175872803e-01,
-8.222484588623046875e-02,
5.350589007139205933e-02,
1.019352972507476807e-01,
1.198819801211357117e-01,
-1.232156231999397278e-01,
-3.249844163656234741e-02,
-2.489707991480827332e-02,
-1.257263869047164917e-01,
-9.650740772485733032e-03,
-4.232106730341911316e-02,
-4.926633834838867188e-02,
-1.319720596075057983e-01,
-7.604985684156417847e-02,
-8.635647594928741455e-02,
2.063906984403729439e-03,
7.667584810405969620e-03,
-7.060682028532028198e-02,
4.723399877548217773e-02,
-8.367860317230224609e-02,
-7.721583545207977295e-02,
-4.721705801784992218e-03,
-3.099259361624717712e-02,
-1.882308423519134521e-01,
-8.384753763675689697e-02,
4.565781354904174805e-02,
-7.670728862285614014e-02,
-4.289368912577629089e-02,
6.950968503952026367e-02,
8.953563868999481201e-02,
7.079141587018966675e-02,
-1.889528036117553711e-01,
-1.362191438674926758e-01,
-2.269298210740089417e-02,
-6.557883322238922119e-02,
4.643989726901054382e-02,
-8.532889187335968018e-02,
-1.651141047477722168e-01,
9.798370301723480225e-02,
-6.229169666767120361e-02,
8.743799477815628052e-02,
-1.450587622821331024e-02,
-1.484538018703460693e-01,
-7.156794518232345581e-02,
-6.575874984264373779e-02,
-2.806837484240531921e-02,
-3.250494832172989845e-03,
-9.652336686849594116e-02,
-3.453913703560829163e-02,
-1.719841808080673218e-01,
1.086792349815368652e-02,
-5.412105470895767212e-02,
8.514352887868881226e-02,
1.789178252220153809e-01,
-1.887808591127395630e-01,
-1.209907308220863342e-01,
-1.356342285871505737e-01,
-4.627947509288787842e-02,
1.005110517144203186e-01,
-9.308242052793502808e-02,
-5.515297129750251770e-02,
1.063701733946800232e-01,
-9.396174550056457520e-02,
9.459273517131805420e-02,
-1.145371049642562866e-01,
2.165957540273666382e-01,
-1.374672725796699524e-02,
1.216853260993957520e-01,
-9.628004580736160278e-02,
-4.931023344397544861e-02,
1.517500579357147217e-01,
-4.000685736536979675e-02,
-5.313846841454505920e-02,
-9.277407079935073853e-02,
-8.045453578233718872e-02,
-4.665877297520637512e-02,
-1.801871806383132935e-01,
1.424887478351593018e-01,
-7.606313377618789673e-02,
-4.129879642277956009e-03,
-2.102993428707122803e-01,
-1.316025666892528534e-02,
-8.355236798524856567e-02,
-2.119870781898498535e-01,
9.111034870147705078e-02,
1.435317397117614746e-01,
3.559105470776557922e-02,
-1.997019350528717041e-02,
-1.124708428978919983e-01,
5.739550665020942688e-02,
1.701553585007786751e-03,
8.213969320058822632e-02,
-1.479699462652206421e-01,
1.346087455749511719e-01,
1.092939227819442749e-01,
-3.846456855535507202e-02,
1.916234008967876434e-02,
-5.340392515063285828e-02,
-4.797469452023506165e-02,
-9.873316437005996704e-02,
1.816433519124984741e-01,
-1.702515929937362671e-01,
-5.808940902352333069e-02,
-8.695817738771438599e-02,
2.480770051479339600e-01,
1.798073761165142059e-02,
-2.330739982426166534e-02,
-3.288362920284271240e-02,
1.244330406188964844e-02,
9.200080297887325287e-03,
-1.483152061700820923e-01,
-1.108133271336555481e-01,
2.209296226501464844e-01,
3.708967939019203186e-02,
1.027081385254859924e-01,
4.703513905405998230e-02,
-7.561251521110534668e-02,
-5.278233438730239868e-02,
-7.739455997943878174e-02,
-9.101141244173049927e-02,
-7.893119752407073975e-02,
-2.701743505895137787e-02,
-1.592975854873657227e-02,
1.288212835788726807e-01,
9.336181730031967163e-02,
1.739760190248489380e-01,
-2.826485410332679749e-02,
-1.074347924441099167e-02,
-1.563726961612701416e-01,
-4.968858882784843445e-02,
-1.231181994080543518e-01,
